~o
<STREAMINFO> 1 39
<VECSIZE> 39<NULLD><MFCC_D_A_0><DIAGC>
~h "MayDay"
<BEGINHMM>
<NUMSTATES> 3
<STATE> 2
<MEAN> 39
 -1.970347e+00 -5.055914e+00 5.759341e+00 -4.121456e+00 5.790622e+00 2.026362e+00 3.188326e+00 -4.279286e+00 9.260565e-01 1.954142e-01 -6.278754e-01 -2.575763e+00 8.132846e+01 6.080677e-04 4.071938e-04 2.927158e-03 3.859110e-03 -2.679755e-03 -2.419838e-03 -1.444195e-03 1.789005e-03 -2.241088e-03 3.449614e-03 6.135589e-03 3.565839e-04 -6.125360e-04 -5.863902e-06 -1.762137e-04 -3.401993e-05 -1.874494e-04 -4.320870e-04 -1.613006e-04 -4.688799e-04 -4.063527e-04 8.594929e-04 -6.325391e-05 3.626221e-04 -5.041600e-04 -2.569593e-04
<VARIANCE> 39
 3.161333e+01 2.773297e+01 1.921153e+01 2.129930e+01 2.294160e+01 3.838840e+01 3.031481e+01 3.465068e+01 1.869967e+01 2.778722e+01 1.885165e+01 1.903864e+01 2.048746e+01 4.954680e-01 3.880230e-01 5.404342e-01 7.412372e-01 8.100610e-01 9.998567e-01 1.125796e+00 1.284091e+00 1.131358e+00 1.171729e+00 1.113781e+00 1.095101e+00 2.500572e-01 6.112847e-02 6.421904e-02 9.453858e-02 1.410832e-01 1.525292e-01 1.864124e-01 2.123683e-01 2.403176e-01 2.229987e-01 2.352090e-01 2.170640e-01 2.135600e-01 2.662683e-02
<GCONST> 8.401174e+01
<TRANSP> 3
 0.000000e+00 1.000000e+00 0.000000e+00
 0.000000e+00 9.992732e-01 7.267443e-04
 0.000000e+00 0.000000e+00 0.000000e+00
<ENDHMM>
