~o
<STREAMINFO> 1 39
<VECSIZE> 39<NULLD><MFCC_D_A_0><DIAGC>
~h "proto"
<BEGINHMM>
<NUMSTATES> 3
<STATE> 2
<MEAN> 39
 -2.101407e+00 -4.932570e+00 6.503107e+00 -5.273125e+00 6.270810e+00 5.662893e-02 -4.734658e-01 -3.773845e+00 2.440116e+00 -4.102015e+00 4.369463e-01 -2.892295e+00 7.875329e+01 8.619580e-04 -8.314884e-04 2.537927e-03 1.620933e-03 -5.351205e-04 -1.242716e-03 -1.984820e-03 -1.768378e-03 -1.199428e-03 1.741945e-03 8.980156e-04 8.277832e-04 -2.042161e-05 1.210853e-04 6.773684e-05 -2.815943e-04 1.315014e-04 -3.610824e-04 -3.548158e-04 4.974700e-05 -8.037056e-05 4.041882e-04 -3.145747e-04 6.992762e-05 5.003850e-05 -9.010236e-05
<VARIANCE> 39
 2.670359e+01 2.533870e+01 3.317508e+01 3.434378e+01 3.492471e+01 4.670044e+01 4.657998e+01 3.383183e+01 3.530084e+01 6.807190e+01 2.580229e+01 2.288196e+01 5.153098e+01 4.297295e-01 3.935838e-01 5.480616e-01 7.389175e-01 8.174295e-01 9.816168e-01 1.135867e+00 1.222972e+00 1.131194e+00 1.172397e+00 1.066855e+00 1.023801e+00 2.121571e-01 5.488736e-02 6.348138e-02 9.379248e-02 1.361738e-01 1.521927e-01 1.844025e-01 2.156935e-01 2.330333e-01 2.235586e-01 2.282023e-01 2.063985e-01 1.980647e-01 2.340137e-02
<GCONST> 8.783585e+01
<TRANSP> 3
 0.000000e+00 1.000000e+00 0.000000e+00
 0.000000e+00 9.000000e-01 9.999999e-02
 0.000000e+00 0.000000e+00 0.000000e+00
<ENDHMM>
